digraph Tree {
node [shape=box, style="filled", color="black"] ;
0 [label="ZipCode Match <= 0.5\nentropy = 1.0\nsamples = 667\nvalue = [334, 333]", fillcolor="#e5813901"] ;
1 [label="Disconnected <= 0.5\nentropy = 0.9\nsamples = 307\nvalue = [97, 210]", fillcolor="#399de589"] ;
0 -> 1 [labeldistance=2.5, labelangle=45, headlabel="True"] ;
2 [label="State Match <= 0.5\nentropy = 0.955\nsamples = 253\nvalue = [95, 158]", fillcolor="#399de566"] ;
1 -> 2 ;
3 [label="Business Phone <= 0.5\nentropy = 0.785\nsamples = 77\nvalue = [18, 59]", fillcolor="#399de5b1"] ;
2 -> 3 ;
4 [label="Medium Quality <= 0.5\nentropy = 0.952\nsamples = 43\nvalue = [16, 27]", fillcolor="#399de568"] ;
3 -> 4 ;
5 [label="Low Quality <= 0.5\nentropy = 0.722\nsamples = 30\nvalue = [6, 24]", fillcolor="#399de5bf"] ;
4 -> 5 ;
6 [label="No Date <= 0.5\nentropy = 0.764\nsamples = 27\nvalue = [6, 21]", fillcolor="#399de5b6"] ;
5 -> 6 ;
7 [label="entropy = 0.722\nsamples = 5\nvalue = [1, 4]", fillcolor="#399de5bf"] ;
6 -> 7 ;
8 [label="entropy = 0.773\nsamples = 22\nvalue = [5, 17]", fillcolor="#399de5b4"] ;
6 -> 8 ;
9 [label="entropy = 0.0\nsamples = 3\nvalue = [0, 3]", fillcolor="#399de5ff"] ;
5 -> 9 ;
10 [label="Relevant Name <= 0.5\nentropy = 0.779\nsamples = 13\nvalue = [10, 3]", fillcolor="#e58139b3"] ;
4 -> 10 ;
11 [label="Ported <= 0.5\nentropy = 0.918\nsamples = 9\nvalue = [6, 3]", fillcolor="#e581397f"] ;
10 -> 11 ;
12 [label="Connected <= 0.5\nentropy = 1.0\nsamples = 6\nvalue = [3, 3]", fillcolor="#e5813900"] ;
11 -> 12 ;
13 [label="entropy = 0.918\nsamples = 3\nvalue = [1, 2]", fillcolor="#399de57f"] ;
12 -> 13 ;
14 [label="entropy = 0.918\nsamples = 3\nvalue = [2, 1]", fillcolor="#e581397f"] ;
12 -> 14 ;
15 [label="entropy = 0.0\nsamples = 3\nvalue = [3, 0]", fillcolor="#e58139ff"] ;
11 -> 15 ;
16 [label="entropy = 0.0\nsamples = 4\nvalue = [4, 0]", fillcolor="#e58139ff"] ;
10 -> 16 ;
17 [label="Medium Quality <= 0.5\nentropy = 0.323\nsamples = 34\nvalue = [2, 32]", fillcolor="#399de5ef"] ;
3 -> 17 ;
18 [label="entropy = 0.0\nsamples = 19\nvalue = [0, 19]", fillcolor="#399de5ff"] ;
17 -> 18 ;
19 [label="Connected <= 0.5\nentropy = 0.567\nsamples = 15\nvalue = [2, 13]", fillcolor="#399de5d8"] ;
17 -> 19 ;
20 [label="entropy = 0.0\nsamples = 1\nvalue = [1, 0]", fillcolor="#e58139ff"] ;
19 -> 20 ;
21 [label="Relevant Name <= 0.5\nentropy = 0.371\nsamples = 14\nvalue = [1, 13]", fillcolor="#399de5eb"] ;
19 -> 21 ;
22 [label="Ported <= 0.5\nentropy = 0.469\nsamples = 10\nvalue = [1, 9]", fillcolor="#399de5e3"] ;
21 -> 22 ;
23 [label="entropy = 0.0\nsamples = 2\nvalue = [0, 2]", fillcolor="#399de5ff"] ;
22 -> 23 ;
24 [label="Possibly Portable VOIP <= 0.5\nentropy = 0.544\nsamples = 8\nvalue = [1, 7]", fillcolor="#399de5db"] ;
22 -> 24 ;
25 [label="entropy = 0.65\nsamples = 6\nvalue = [1, 5]", fillcolor="#399de5cc"] ;
24 -> 25 ;
26 [label="entropy = 0.0\nsamples = 2\nvalue = [0, 2]", fillcolor="#399de5ff"] ;
24 -> 26 ;
27 [label="entropy = 0.0\nsamples = 4\nvalue = [0, 4]", fillcolor="#399de5ff"] ;
21 -> 27 ;
28 [label="Relevant Name <= 0.5\nentropy = 0.989\nsamples = 176\nvalue = [77, 99]", fillcolor="#399de539"] ;
2 -> 28 ;
29 [label="No Date <= 0.5\nentropy = 0.887\nsamples = 82\nvalue = [25, 57]", fillcolor="#399de58f"] ;
28 -> 29 ;
30 [label="No Address <= 0.5\nentropy = 0.993\nsamples = 40\nvalue = [18, 22]", fillcolor="#399de52e"] ;
29 -> 30 ;
31 [label="City Match <= 0.5\nentropy = 0.787\nsamples = 17\nvalue = [4, 13]", fillcolor="#399de5b1"] ;
30 -> 31 ;
32 [label="Last Name Match <= 0.5\nentropy = 0.845\nsamples = 11\nvalue = [3, 8]", fillcolor="#399de59f"] ;
31 -> 32 ;
33 [label="Business Phone <= 0.5\nentropy = 0.918\nsamples = 6\nvalue = [2, 4]", fillcolor="#399de57f"] ;
32 -> 33 ;
34 [label="Relevant SIC <= 0.5\nentropy = 1.0\nsamples = 4\nvalue = [2, 2]", fillcolor="#e5813900"] ;
33 -> 34 ;
35 [label="entropy = 0.918\nsamples = 3\nvalue = [2, 1]", fillcolor="#e581397f"] ;
34 -> 35 ;
36 [label="entropy = 0.0\nsamples = 1\nvalue = [0, 1]", fillcolor="#399de5ff"] ;
34 -> 36 ;
37 [label="entropy = 0.0\nsamples = 2\nvalue = [0, 2]", fillcolor="#399de5ff"] ;
33 -> 37 ;
38 [label="Business Phone <= 0.5\nentropy = 0.722\nsamples = 5\nvalue = [1, 4]", fillcolor="#399de5bf"] ;
32 -> 38 ;
39 [label="entropy = 0.0\nsamples = 4\nvalue = [0, 4]", fillcolor="#399de5ff"] ;
38 -> 39 ;
40 [label="entropy = 0.0\nsamples = 1\nvalue = [1, 0]", fillcolor="#e58139ff"] ;
38 -> 40 ;
41 [label="Last Name Match <= 0.5\nentropy = 0.65\nsamples = 6\nvalue = [1, 5]", fillcolor="#399de5cc"] ;
31 -> 41 ;
42 [label="entropy = 0.0\nsamples = 4\nvalue = [0, 4]", fillcolor="#399de5ff"] ;
41 -> 42 ;
43 [label="Connected <= 0.5\nentropy = 1.0\nsamples = 2\nvalue = [1, 1]", fillcolor="#e5813900"] ;
41 -> 43 ;
44 [label="entropy = 0.0\nsamples = 1\nvalue = [1, 0]", fillcolor="#e58139ff"] ;
43 -> 44 ;
45 [label="entropy = 0.0\nsamples = 1\nvalue = [0, 1]", fillcolor="#399de5ff"] ;
43 -> 45 ;
46 [label="Relevant SIC <= 0.5\nentropy = 0.966\nsamples = 23\nvalue = [14, 9]", fillcolor="#e581395b"] ;
30 -> 46 ;
47 [label="Last Name Match <= 0.5\nentropy = 0.946\nsamples = 22\nvalue = [14, 8]", fillcolor="#e581396d"] ;
46 -> 47 ;
48 [label="Wireless type <= 0.5\nentropy = 0.959\nsamples = 21\nvalue = [13, 8]", fillcolor="#e5813962"] ;
47 -> 48 ;
49 [label="Business Phone <= 0.5\nentropy = 0.934\nsamples = 20\nvalue = [13, 7]", fillcolor="#e5813976"] ;
48 -> 49 ;
50 [label="Connected <= 0.5\nentropy = 0.65\nsamples = 6\nvalue = [5, 1]", fillcolor="#e58139cc"] ;
49 -> 50 ;
51 [label="entropy = 0.0\nsamples = 5\nvalue = [5, 0]", fillcolor="#e58139ff"] ;
50 -> 51 ;
52 [label="entropy = 0.0\nsamples = 1\nvalue = [0, 1]", fillcolor="#399de5ff"] ;
50 -> 52 ;
53 [label="Low Quality <= 0.5\nentropy = 0.985\nsamples = 14\nvalue = [8, 6]", fillcolor="#e5813940"] ;
49 -> 53 ;
54 [label="City Match <= 0.5\nentropy = 0.65\nsamples = 6\nvalue = [5, 1]", fillcolor="#e58139cc"] ;
53 -> 54 ;
55 [label="entropy = 0.0\nsamples = 2\nvalue = [2, 0]", fillcolor="#e58139ff"] ;
54 -> 55 ;
56 [label="Possibly Portable VOIP <= 0.5\nentropy = 0.811\nsamples = 4\nvalue = [3, 1]", fillcolor="#e58139aa"] ;
54 -> 56 ;
57 [label="entropy = 0.918\nsamples = 3\nvalue = [2, 1]", fillcolor="#e581397f"] ;
56 -> 57 ;
58 [label="entropy = 0.0\nsamples = 1\nvalue = [1, 0]", fillcolor="#e58139ff"] ;
56 -> 58 ;
59 [label="Possibly Portable VOIP <= 0.5\nentropy = 0.954\nsamples = 8\nvalue = [3, 5]", fillcolor="#399de566"] ;
53 -> 59 ;
60 [label="City Match <= 0.5\nentropy = 0.918\nsamples = 6\nvalue = [2, 4]", fillcolor="#399de57f"] ;
59 -> 60 ;
61 [label="entropy = 1.0\nsamples = 2\nvalue = [1, 1]", fillcolor="#e5813900"] ;
60 -> 61 ;
62 [label="entropy = 0.811\nsamples = 4\nvalue = [1, 3]", fillcolor="#399de5aa"] ;
60 -> 62 ;
63 [label="entropy = 1.0\nsamples = 2\nvalue = [1, 1]", fillcolor="#e5813900"] ;
59 -> 63 ;
64 [label="entropy = 0.0\nsamples = 1\nvalue = [0, 1]", fillcolor="#399de5ff"] ;
48 -> 64 ;
65 [label="entropy = 0.0\nsamples = 1\nvalue = [1, 0]", fillcolor="#e58139ff"] ;
47 -> 65 ;
66 [label="entropy = 0.0\nsamples = 1\nvalue = [0, 1]", fillcolor="#399de5ff"] ;
46 -> 66 ;
67 [label="Connected <= 0.5\nentropy = 0.65\nsamples = 42\nvalue = [7, 35]", fillcolor="#399de5cc"] ;
29 -> 67 ;
68 [label="City Match <= 0.5\nentropy = 0.887\nsamples = 23\nvalue = [7, 16]", fillcolor="#399de58f"] ;
67 -> 68 ;
69 [label="Business Phone <= 0.5\nentropy = 0.371\nsamples = 14\nvalue = [1, 13]", fillcolor="#399de5eb"] ;
68 -> 69 ;
70 [label="No Address <= 0.5\nentropy = 0.722\nsamples = 5\nvalue = [1, 4]", fillcolor="#399de5bf"] ;
69 -> 70 ;
71 [label="entropy = 0.0\nsamples = 2\nvalue = [0, 2]", fillcolor="#399de5ff"] ;
70 -> 71 ;
72 [label="entropy = 0.918\nsamples = 3\nvalue = [1, 2]", fillcolor="#399de57f"] ;
70 -> 72 ;
73 [label="entropy = 0.0\nsamples = 9\nvalue = [0, 9]", fillcolor="#399de5ff"] ;
69 -> 73 ;
74 [label="Mailable <= 0.5\nentropy = 0.918\nsamples = 9\nvalue = [6, 3]", fillcolor="#e581397f"] ;
68 -> 74 ;
75 [label="Business Phone <= 0.5\nentropy = 0.971\nsamples = 5\nvalue = [2, 3]", fillcolor="#399de555"] ;
74 -> 75 ;
76 [label="entropy = 1.0\nsamples = 2\nvalue = [1, 1]", fillcolor="#e5813900"] ;
75 -> 76 ;
77 [label="entropy = 0.918\nsamples = 3\nvalue = [1, 2]", fillcolor="#399de57f"] ;
75 -> 77 ;
78 [label="entropy = 0.0\nsamples = 4\nvalue = [4, 0]", fillcolor="#e58139ff"] ;
74 -> 78 ;
79 [label="entropy = 0.0\nsamples = 19\nvalue = [0, 19]", fillcolor="#399de5ff"] ;
67 -> 79 ;
80 [label="Connected <= 0.5\nentropy = 0.992\nsamples = 94\nvalue = [52, 42]", fillcolor="#e5813931"] ;
28 -> 80 ;
81 [label="City Match <= 0.5\nentropy = 0.963\nsamples = 31\nvalue = [12, 19]", fillcolor="#399de55e"] ;
80 -> 81 ;
82 [label="No Address <= 0.5\nentropy = 0.592\nsamples = 14\nvalue = [2, 12]", fillcolor="#399de5d4"] ;
81 -> 82 ;
83 [label="entropy = 0.0\nsamples = 10\nvalue = [0, 10]", fillcolor="#399de5ff"] ;
82 -> 83 ;
84 [label="Possibly Portable VOIP <= 0.5\nentropy = 1.0\nsamples = 4\nvalue = [2, 2]", fillcolor="#e5813900"] ;
82 -> 84 ;
85 [label="entropy = 0.918\nsamples = 3\nvalue = [2, 1]", fillcolor="#e581397f"] ;
84 -> 85 ;
86 [label="entropy = 0.0\nsamples = 1\nvalue = [0, 1]", fillcolor="#399de5ff"] ;
84 -> 86 ;
87 [label="Wireless type <= 0.5\nentropy = 0.977\nsamples = 17\nvalue = [10, 7]", fillcolor="#e581394d"] ;
81 -> 87 ;
88 [label="Last Name Match <= 0.5\nentropy = 0.918\nsamples = 15\nvalue = [10, 5]", fillcolor="#e581397f"] ;
87 -> 88 ;
89 [label="Relevant SIC <= 0.5\nentropy = 0.863\nsamples = 14\nvalue = [10, 4]", fillcolor="#e5813999"] ;
88 -> 89 ;
90 [label="Mailable <= 0.5\nentropy = 0.946\nsamples = 11\nvalue = [7, 4]", fillcolor="#e581396d"] ;
89 -> 90 ;
91 [label="No Date <= 0.5\nentropy = 0.863\nsamples = 7\nvalue = [5, 2]", fillcolor="#e5813999"] ;
90 -> 91 ;
92 [label="entropy = 0.918\nsamples = 6\nvalue = [4, 2]", fillcolor="#e581397f"] ;
91 -> 92 ;
93 [label="entropy = 0.0\nsamples = 1\nvalue = [1, 0]", fillcolor="#e58139ff"] ;
91 -> 93 ;
94 [label="Ported <= 0.5\nentropy = 1.0\nsamples = 4\nvalue = [2, 2]", fillcolor="#e5813900"] ;
90 -> 94 ;
95 [label="entropy = 0.918\nsamples = 3\nvalue = [1, 2]", fillcolor="#399de57f"] ;
94 -> 95 ;
96 [label="entropy = 0.0\nsamples = 1\nvalue = [1, 0]", fillcolor="#e58139ff"] ;
94 -> 96 ;
97 [label="entropy = 0.0\nsamples = 3\nvalue = [3, 0]", fillcolor="#e58139ff"] ;
89 -> 97 ;
98 [label="entropy = 0.0\nsamples = 1\nvalue = [0, 1]", fillcolor="#399de5ff"] ;
88 -> 98 ;
99 [label="entropy = 0.0\nsamples = 2\nvalue = [0, 2]", fillcolor="#399de5ff"] ;
87 -> 99 ;
100 [label="Last Name Match <= 0.5\nentropy = 0.947\nsamples = 63\nvalue = [40, 23]", fillcolor="#e581396c"] ;
80 -> 100 ;
101 [label="Relevant SIC <= 0.5\nentropy = 0.905\nsamples = 53\nvalue = [36, 17]", fillcolor="#e5813987"] ;
100 -> 101 ;
102 [label="City Match <= 0.5\nentropy = 0.994\nsamples = 22\nvalue = [12, 10]", fillcolor="#e581392a"] ;
101 -> 102 ;
103 [label="No Date <= 0.5\nentropy = 0.954\nsamples = 8\nvalue = [3, 5]", fillcolor="#399de566"] ;
102 -> 103 ;
104 [label="No Address <= 0.5\nentropy = 0.811\nsamples = 4\nvalue = [3, 1]", fillcolor="#e58139aa"] ;
103 -> 104 ;
105 [label="entropy = 0.0\nsamples = 3\nvalue = [3, 0]", fillcolor="#e58139ff"] ;
104 -> 105 ;
106 [label="entropy = 0.0\nsamples = 1\nvalue = [0, 1]", fillcolor="#399de5ff"] ;
104 -> 106 ;
107 [label="entropy = 0.0\nsamples = 4\nvalue = [0, 4]", fillcolor="#399de5ff"] ;
103 -> 107 ;
108 [label="Mailable <= 0.5\nentropy = 0.94\nsamples = 14\nvalue = [9, 5]", fillcolor="#e5813971"] ;
102 -> 108 ;
109 [label="No Date <= 0.5\nentropy = 0.845\nsamples = 11\nvalue = [8, 3]", fillcolor="#e581399f"] ;
108 -> 109 ;
110 [label="entropy = 1.0\nsamples = 4\nvalue = [2, 2]", fillcolor="#e5813900"] ;
109 -> 110 ;
111 [label="High Quality <= 0.5\nentropy = 0.592\nsamples = 7\nvalue = [6, 1]", fillcolor="#e58139d4"] ;
109 -> 111 ;
112 [label="entropy = 0.0\nsamples = 4\nvalue = [4, 0]", fillcolor="#e58139ff"] ;
111 -> 112 ;
113 [label="No Address <= 0.5\nentropy = 0.918\nsamples = 3\nvalue = [2, 1]", fillcolor="#e581397f"] ;
111 -> 113 ;
114 [label="entropy = 0.0\nsamples = 1\nvalue = [1, 0]", fillcolor="#e58139ff"] ;
113 -> 114 ;
115 [label="entropy = 1.0\nsamples = 2\nvalue = [1, 1]", fillcolor="#e5813900"] ;
113 -> 115 ;
116 [label="No Date <= 0.5\nentropy = 0.918\nsamples = 3\nvalue = [1, 2]", fillcolor="#399de57f"] ;
108 -> 116 ;
117 [label="entropy = 1.0\nsamples = 2\nvalue = [1, 1]", fillcolor="#e5813900"] ;
116 -> 117 ;
118 [label="entropy = 0.0\nsamples = 1\nvalue = [0, 1]", fillcolor="#399de5ff"] ;
116 -> 118 ;
119 [label="Mailable <= 0.5\nentropy = 0.771\nsamples = 31\nvalue = [24, 7]", fillcolor="#e58139b5"] ;
101 -> 119 ;
120 [label="entropy = 0.0\nsamples = 8\nvalue = [8, 0]", fillcolor="#e58139ff"] ;
119 -> 120 ;
121 [label="Ported <= 0.5\nentropy = 0.887\nsamples = 23\nvalue = [16, 7]", fillcolor="#e581398f"] ;
119 -> 121 ;
122 [label="City Match <= 0.5\nentropy = 0.954\nsamples = 8\nvalue = [3, 5]", fillcolor="#399de566"] ;
121 -> 122 ;
123 [label="entropy = 0.971\nsamples = 5\nvalue = [2, 3]", fillcolor="#399de555"] ;
122 -> 123 ;
124 [label="entropy = 0.918\nsamples = 3\nvalue = [1, 2]", fillcolor="#399de57f"] ;
122 -> 124 ;
125 [label="City Match <= 0.5\nentropy = 0.567\nsamples = 15\nvalue = [13, 2]", fillcolor="#e58139d8"] ;
121 -> 125 ;
126 [label="entropy = 0.0\nsamples = 9\nvalue = [9, 0]", fillcolor="#e58139ff"] ;
125 -> 126 ;
127 [label="entropy = 0.918\nsamples = 6\nvalue = [4, 2]", fillcolor="#e581397f"] ;
125 -> 127 ;
128 [label="Relevant SIC <= 0.5\nentropy = 0.971\nsamples = 10\nvalue = [4, 6]", fillcolor="#399de555"] ;
100 -> 128 ;
129 [label="City Match <= 0.5\nentropy = 0.971\nsamples = 5\nvalue = [3, 2]", fillcolor="#e5813955"] ;
128 -> 129 ;
130 [label="entropy = 0.0\nsamples = 1\nvalue = [0, 1]", fillcolor="#399de5ff"] ;
129 -> 130 ;
131 [label="Ported <= 0.5\nentropy = 0.811\nsamples = 4\nvalue = [3, 1]", fillcolor="#e58139aa"] ;
129 -> 131 ;
132 [label="entropy = 0.0\nsamples = 2\nvalue = [2, 0]", fillcolor="#e58139ff"] ;
131 -> 132 ;
133 [label="entropy = 1.0\nsamples = 2\nvalue = [1, 1]", fillcolor="#e5813900"] ;
131 -> 133 ;
134 [label="City Match <= 0.5\nentropy = 0.722\nsamples = 5\nvalue = [1, 4]", fillcolor="#399de5bf"] ;
128 -> 134 ;
135 [label="entropy = 1.0\nsamples = 2\nvalue = [1, 1]", fillcolor="#e5813900"] ;
134 -> 135 ;
136 [label="entropy = 0.0\nsamples = 3\nvalue = [0, 3]", fillcolor="#399de5ff"] ;
134 -> 136 ;
137 [label="No Address <= 0.5\nentropy = 0.229\nsamples = 54\nvalue = [2, 52]", fillcolor="#399de5f5"] ;
1 -> 137 ;
138 [label="Mailable <= 0.5\nentropy = 0.292\nsamples = 39\nvalue = [2, 37]", fillcolor="#399de5f1"] ;
137 -> 138 ;
139 [label="No Date <= 0.5\nentropy = 1.0\nsamples = 2\nvalue = [1, 1]", fillcolor="#e5813900"] ;
138 -> 139 ;
140 [label="entropy = 0.0\nsamples = 1\nvalue = [1, 0]", fillcolor="#e58139ff"] ;
139 -> 140 ;
141 [label="entropy = 0.0\nsamples = 1\nvalue = [0, 1]", fillcolor="#399de5ff"] ;
139 -> 141 ;
142 [label="Relevant SIC <= 0.5\nentropy = 0.179\nsamples = 37\nvalue = [1, 36]", fillcolor="#399de5f8"] ;
138 -> 142 ;
143 [label="entropy = 0.0\nsamples = 24\nvalue = [0, 24]", fillcolor="#399de5ff"] ;
142 -> 143 ;
144 [label="Business Phone <= 0.5\nentropy = 0.391\nsamples = 13\nvalue = [1, 12]", fillcolor="#399de5ea"] ;
142 -> 144 ;
145 [label="City Match <= 0.5\nentropy = 0.811\nsamples = 4\nvalue = [1, 3]", fillcolor="#399de5aa"] ;
144 -> 145 ;
146 [label="entropy = 0.0\nsamples = 1\nvalue = [1, 0]", fillcolor="#e58139ff"] ;
145 -> 146 ;
147 [label="entropy = 0.0\nsamples = 3\nvalue = [0, 3]", fillcolor="#399de5ff"] ;
145 -> 147 ;
148 [label="entropy = 0.0\nsamples = 9\nvalue = [0, 9]", fillcolor="#399de5ff"] ;
144 -> 148 ;
149 [label="entropy = 0.0\nsamples = 15\nvalue = [0, 15]", fillcolor="#399de5ff"] ;
137 -> 149 ;
150 [label="INF <= 0.5\nentropy = 0.926\nsamples = 360\nvalue = [237, 123]", fillcolor="#e581397b"] ;
0 -> 150 [labeldistance=2.5, labelangle=-45, headlabel="False"] ;
151 [label="No Date <= 0.5\nentropy = 0.855\nsamples = 315\nvalue = [227, 88]", fillcolor="#e581399c"] ;
150 -> 151 ;
152 [label="Medium Quality <= 0.5\nentropy = 0.661\nsamples = 175\nvalue = [145, 30]", fillcolor="#e58139ca"] ;
151 -> 152 ;
153 [label="City Match <= 0.5\nentropy = 0.619\nsamples = 169\nvalue = [143, 26]", fillcolor="#e58139d1"] ;
152 -> 153 ;
154 [label="entropy = 0.0\nsamples = 10\nvalue = [10, 0]", fillcolor="#e58139ff"] ;
153 -> 154 ;
155 [label="Possibly Portable VOIP <= 0.5\nentropy = 0.643\nsamples = 159\nvalue = [133, 26]", fillcolor="#e58139cd"] ;
153 -> 155 ;
156 [label="Connected <= 0.5\nentropy = 0.665\nsamples = 150\nvalue = [124, 26]", fillcolor="#e58139ca"] ;
155 -> 156 ;
157 [label="Relevant Name <= 0.5\nentropy = 0.592\nsamples = 35\nvalue = [30, 5]", fillcolor="#e58139d4"] ;
156 -> 157 ;
158 [label="entropy = 0.0\nsamples = 14\nvalue = [14, 0]", fillcolor="#e58139ff"] ;
157 -> 158 ;
159 [label="No Address <= 0.5\nentropy = 0.792\nsamples = 21\nvalue = [16, 5]", fillcolor="#e58139af"] ;
157 -> 159 ;
160 [label="Address Match <= 0.5\nentropy = 0.811\nsamples = 20\nvalue = [15, 5]", fillcolor="#e58139aa"] ;
159 -> 160 ;
161 [label="Relevant SIC <= 0.5\nentropy = 0.971\nsamples = 5\nvalue = [3, 2]", fillcolor="#e5813955"] ;
160 -> 161 ;
162 [label="entropy = 0.918\nsamples = 3\nvalue = [2, 1]", fillcolor="#e581397f"] ;
161 -> 162 ;
163 [label="entropy = 1.0\nsamples = 2\nvalue = [1, 1]", fillcolor="#e5813900"] ;
161 -> 163 ;
164 [label="Last Name Match <= 0.5\nentropy = 0.722\nsamples = 15\nvalue = [12, 3]", fillcolor="#e58139bf"] ;
160 -> 164 ;
165 [label="Relevant SIC <= 0.5\nentropy = 0.65\nsamples = 12\nvalue = [10, 2]", fillcolor="#e58139cc"] ;
164 -> 165 ;
166 [label="entropy = 0.544\nsamples = 8\nvalue = [7, 1]", fillcolor="#e58139db"] ;
165 -> 166 ;
167 [label="entropy = 0.811\nsamples = 4\nvalue = [3, 1]", fillcolor="#e58139aa"] ;
165 -> 167 ;
168 [label="entropy = 0.918\nsamples = 3\nvalue = [2, 1]", fillcolor="#e581397f"] ;
164 -> 168 ;
169 [label="entropy = 0.0\nsamples = 1\nvalue = [1, 0]", fillcolor="#e58139ff"] ;
159 -> 169 ;
170 [label="Relevant Name <= 0.5\nentropy = 0.686\nsamples = 115\nvalue = [94, 21]", fillcolor="#e58139c6"] ;
156 -> 170 ;
171 [label="Last Name Match <= 0.5\nentropy = 0.797\nsamples = 29\nvalue = [22, 7]", fillcolor="#e58139ae"] ;
170 -> 171 ;
172 [label="Relevant SIC <= 0.5\nentropy = 0.575\nsamples = 22\nvalue = [19, 3]", fillcolor="#e58139d7"] ;
171 -> 172 ;
173 [label="entropy = 0.0\nsamples = 3\nvalue = [3, 0]", fillcolor="#e58139ff"] ;
172 -> 173 ;
174 [label="Business Phone <= 0.5\nentropy = 0.629\nsamples = 19\nvalue = [16, 3]", fillcolor="#e58139cf"] ;
172 -> 174 ;
175 [label="Address Match <= 0.5\nentropy = 0.439\nsamples = 11\nvalue = [10, 1]", fillcolor="#e58139e6"] ;
174 -> 175 ;
176 [label="entropy = 0.811\nsamples = 4\nvalue = [3, 1]", fillcolor="#e58139aa"] ;
175 -> 176 ;
177 [label="entropy = 0.0\nsamples = 7\nvalue = [7, 0]", fillcolor="#e58139ff"] ;
175 -> 177 ;
178 [label="Address Match <= 0.5\nentropy = 0.811\nsamples = 8\nvalue = [6, 2]", fillcolor="#e58139aa"] ;
174 -> 178 ;
179 [label="entropy = 0.0\nsamples = 1\nvalue = [1, 0]", fillcolor="#e58139ff"] ;
178 -> 179 ;
180 [label="entropy = 0.863\nsamples = 7\nvalue = [5, 2]", fillcolor="#e5813999"] ;
178 -> 180 ;
181 [label="Relevant SIC <= 0.5\nentropy = 0.985\nsamples = 7\nvalue = [3, 4]", fillcolor="#399de540"] ;
171 -> 181 ;
182 [label="entropy = 0.0\nsamples = 3\nvalue = [0, 3]", fillcolor="#399de5ff"] ;
181 -> 182 ;
183 [label="Business Phone <= 0.5\nentropy = 0.811\nsamples = 4\nvalue = [3, 1]", fillcolor="#e58139aa"] ;
181 -> 183 ;
184 [label="entropy = 1.0\nsamples = 2\nvalue = [1, 1]", fillcolor="#e5813900"] ;
183 -> 184 ;
185 [label="entropy = 0.0\nsamples = 2\nvalue = [2, 0]", fillcolor="#e58139ff"] ;
183 -> 185 ;
186 [label="Last Name Match <= 0.5\nentropy = 0.641\nsamples = 86\nvalue = [72, 14]", fillcolor="#e58139cd"] ;
170 -> 186 ;
187 [label="Relevant SIC <= 0.5\nentropy = 0.704\nsamples = 68\nvalue = [55, 13]", fillcolor="#e58139c3"] ;
186 -> 187 ;
188 [label="No Address <= 0.5\nentropy = 0.619\nsamples = 26\nvalue = [22, 4]", fillcolor="#e58139d1"] ;
187 -> 188 ;
189 [label="Address Match <= 0.5\nentropy = 0.529\nsamples = 25\nvalue = [22, 3]", fillcolor="#e58139dc"] ;
188 -> 189 ;
190 [label="entropy = 0.0\nsamples = 3\nvalue = [3, 0]", fillcolor="#e58139ff"] ;
189 -> 190 ;
191 [label="entropy = 0.575\nsamples = 22\nvalue = [19, 3]", fillcolor="#e58139d7"] ;
189 -> 191 ;
192 [label="entropy = 0.0\nsamples = 1\nvalue = [0, 1]", fillcolor="#399de5ff"] ;
188 -> 192 ;
193 [label="Mailable <= 0.5\nentropy = 0.75\nsamples = 42\nvalue = [33, 9]", fillcolor="#e58139b9"] ;
187 -> 193 ;
194 [label="entropy = 0.0\nsamples = 3\nvalue = [3, 0]", fillcolor="#e58139ff"] ;
193 -> 194 ;
195 [label="Address Match <= 0.5\nentropy = 0.779\nsamples = 39\nvalue = [30, 9]", fillcolor="#e58139b3"] ;
193 -> 195 ;
196 [label="entropy = 0.722\nsamples = 10\nvalue = [8, 2]", fillcolor="#e58139bf"] ;
195 -> 196 ;
197 [label="entropy = 0.797\nsamples = 29\nvalue = [22, 7]", fillcolor="#e58139ae"] ;
195 -> 197 ;
198 [label="Address Match <= 0.5\nentropy = 0.31\nsamples = 18\nvalue = [17, 1]", fillcolor="#e58139f0"] ;
186 -> 198 ;
199 [label="Relevant SIC <= 0.5\nentropy = 0.592\nsamples = 7\nvalue = [6, 1]", fillcolor="#e58139d4"] ;
198 -> 199 ;
200 [label="entropy = 0.811\nsamples = 4\nvalue = [3, 1]", fillcolor="#e58139aa"] ;
199 -> 200 ;
201 [label="entropy = 0.0\nsamples = 3\nvalue = [3, 0]", fillcolor="#e58139ff"] ;
199 -> 201 ;
202 [label="entropy = 0.0\nsamples = 11\nvalue = [11, 0]", fillcolor="#e58139ff"] ;
198 -> 202 ;
203 [label="entropy = 0.0\nsamples = 9\nvalue = [9, 0]", fillcolor="#e58139ff"] ;
155 -> 203 ;
204 [label="Relevant Name <= 0.5\nentropy = 0.918\nsamples = 6\nvalue = [2, 4]", fillcolor="#399de57f"] ;
152 -> 204 ;
205 [label="Business Phone <= 0.5\nentropy = 0.722\nsamples = 5\nvalue = [1, 4]", fillcolor="#399de5bf"] ;
204 -> 205 ;
206 [label="entropy = 0.0\nsamples = 2\nvalue = [0, 2]", fillcolor="#399de5ff"] ;
205 -> 206 ;
207 [label="entropy = 0.918\nsamples = 3\nvalue = [1, 2]", fillcolor="#399de57f"] ;
205 -> 207 ;
208 [label="entropy = 0.0\nsamples = 1\nvalue = [1, 0]", fillcolor="#e58139ff"] ;
204 -> 208 ;
209 [label="Relevant Name <= 0.5\nentropy = 0.979\nsamples = 140\nvalue = [82, 58]", fillcolor="#e581394b"] ;
151 -> 209 ;
210 [label="Relevant SIC <= 0.5\nentropy = 0.987\nsamples = 53\nvalue = [23, 30]", fillcolor="#399de53b"] ;
209 -> 210 ;
211 [label="Last Name Match <= 0.5\nentropy = 0.857\nsamples = 32\nvalue = [9, 23]", fillcolor="#399de59b"] ;
210 -> 211 ;
212 [label="Address Match <= 0.5\nentropy = 0.997\nsamples = 15\nvalue = [7, 8]", fillcolor="#399de520"] ;
211 -> 212 ;
213 [label="No Address <= 0.5\nentropy = 0.881\nsamples = 10\nvalue = [3, 7]", fillcolor="#399de592"] ;
212 -> 213 ;
214 [label="entropy = 0.0\nsamples = 5\nvalue = [0, 5]", fillcolor="#399de5ff"] ;
213 -> 214 ;
215 [label="Connected <= 0.5\nentropy = 0.971\nsamples = 5\nvalue = [3, 2]", fillcolor="#e5813955"] ;
213 -> 215 ;
216 [label="entropy = 0.0\nsamples = 3\nvalue = [3, 0]", fillcolor="#e58139ff"] ;
215 -> 216 ;
217 [label="entropy = 0.0\nsamples = 2\nvalue = [0, 2]", fillcolor="#399de5ff"] ;
215 -> 217 ;
218 [label="City Match <= 0.5\nentropy = 0.722\nsamples = 5\nvalue = [4, 1]", fillcolor="#e58139bf"] ;
212 -> 218 ;
219 [label="entropy = 0.0\nsamples = 1\nvalue = [0, 1]", fillcolor="#399de5ff"] ;
218 -> 219 ;
220 [label="entropy = 0.0\nsamples = 4\nvalue = [4, 0]", fillcolor="#e58139ff"] ;
218 -> 220 ;
221 [label="City Match <= 0.5\nentropy = 0.523\nsamples = 17\nvalue = [2, 15]", fillcolor="#399de5dd"] ;
211 -> 221 ;
222 [label="entropy = 0.0\nsamples = 1\nvalue = [1, 0]", fillcolor="#e58139ff"] ;
221 -> 222 ;
223 [label="Address Match <= 0.5\nentropy = 0.337\nsamples = 16\nvalue = [1, 15]", fillcolor="#399de5ee"] ;
221 -> 223 ;
224 [label="Business Phone <= 0.5\nentropy = 0.722\nsamples = 5\nvalue = [1, 4]", fillcolor="#399de5bf"] ;
223 -> 224 ;
225 [label="entropy = 0.0\nsamples = 3\nvalue = [0, 3]", fillcolor="#399de5ff"] ;
224 -> 225 ;
226 [label="Connected <= 0.5\nentropy = 1.0\nsamples = 2\nvalue = [1, 1]", fillcolor="#e5813900"] ;
224 -> 226 ;
227 [label="entropy = 0.0\nsamples = 1\nvalue = [0, 1]", fillcolor="#399de5ff"] ;
226 -> 227 ;
228 [label="entropy = 0.0\nsamples = 1\nvalue = [1, 0]", fillcolor="#e58139ff"] ;
226 -> 228 ;
229 [label="entropy = 0.0\nsamples = 11\nvalue = [0, 11]", fillcolor="#399de5ff"] ;
223 -> 229 ;
230 [label="High Quality <= 0.5\nentropy = 0.918\nsamples = 21\nvalue = [14, 7]", fillcolor="#e581397f"] ;
210 -> 230 ;
231 [label="Last Name Match <= 0.5\nentropy = 0.811\nsamples = 8\nvalue = [2, 6]", fillcolor="#399de5aa"] ;
230 -> 231 ;
232 [label="Mailable <= 0.5\nentropy = 0.971\nsamples = 5\nvalue = [2, 3]", fillcolor="#399de555"] ;
231 -> 232 ;
233 [label="entropy = 0.0\nsamples = 1\nvalue = [0, 1]", fillcolor="#399de5ff"] ;
232 -> 233 ;
234 [label="Address Match <= 0.5\nentropy = 1.0\nsamples = 4\nvalue = [2, 2]", fillcolor="#e5813900"] ;
232 -> 234 ;
235 [label="entropy = 0.0\nsamples = 1\nvalue = [1, 0]", fillcolor="#e58139ff"] ;
234 -> 235 ;
236 [label="entropy = 0.918\nsamples = 3\nvalue = [1, 2]", fillcolor="#399de57f"] ;
234 -> 236 ;
237 [label="entropy = 0.0\nsamples = 3\nvalue = [0, 3]", fillcolor="#399de5ff"] ;
231 -> 237 ;
238 [label="Address Match <= 0.5\nentropy = 0.391\nsamples = 13\nvalue = [12, 1]", fillcolor="#e58139ea"] ;
230 -> 238 ;
239 [label="Business Phone <= 0.5\nentropy = 0.811\nsamples = 4\nvalue = [3, 1]", fillcolor="#e58139aa"] ;
238 -> 239 ;
240 [label="entropy = 0.0\nsamples = 1\nvalue = [0, 1]", fillcolor="#399de5ff"] ;
239 -> 240 ;
241 [label="entropy = 0.0\nsamples = 3\nvalue = [3, 0]", fillcolor="#e58139ff"] ;
239 -> 241 ;
242 [label="entropy = 0.0\nsamples = 9\nvalue = [9, 0]", fillcolor="#e58139ff"] ;
238 -> 242 ;
243 [label="High Quality <= 0.5\nentropy = 0.906\nsamples = 87\nvalue = [59, 28]", fillcolor="#e5813986"] ;
209 -> 243 ;
244 [label="Last Name Match <= 0.5\nentropy = 0.999\nsamples = 25\nvalue = [13, 12]", fillcolor="#e5813914"] ;
243 -> 244 ;
245 [label="Address Match <= 0.5\nentropy = 0.988\nsamples = 23\nvalue = [13, 10]", fillcolor="#e581393b"] ;
244 -> 245 ;
246 [label="Relevant SIC <= 0.5\nentropy = 0.954\nsamples = 16\nvalue = [10, 6]", fillcolor="#e5813966"] ;
245 -> 246 ;
247 [label="No Address <= 0.5\nentropy = 0.971\nsamples = 15\nvalue = [9, 6]", fillcolor="#e5813955"] ;
246 -> 247 ;
248 [label="entropy = 0.98\nsamples = 12\nvalue = [7, 5]", fillcolor="#e5813949"] ;
247 -> 248 ;
249 [label="entropy = 0.918\nsamples = 3\nvalue = [2, 1]", fillcolor="#e581397f"] ;
247 -> 249 ;
250 [label="entropy = 0.0\nsamples = 1\nvalue = [1, 0]", fillcolor="#e58139ff"] ;
246 -> 250 ;
251 [label="Relevant SIC <= 0.5\nentropy = 0.985\nsamples = 7\nvalue = [3, 4]", fillcolor="#399de540"] ;
245 -> 251 ;
252 [label="entropy = 0.918\nsamples = 3\nvalue = [1, 2]", fillcolor="#399de57f"] ;
251 -> 252 ;
253 [label="entropy = 1.0\nsamples = 4\nvalue = [2, 2]", fillcolor="#e5813900"] ;
251 -> 253 ;
254 [label="entropy = 0.0\nsamples = 2\nvalue = [0, 2]", fillcolor="#399de5ff"] ;
244 -> 254 ;
255 [label="Address Match <= 0.5\nentropy = 0.824\nsamples = 62\nvalue = [46, 16]", fillcolor="#e58139a6"] ;
243 -> 255 ;
256 [label="Mailable <= 0.5\nentropy = 0.353\nsamples = 15\nvalue = [14, 1]", fillcolor="#e58139ed"] ;
255 -> 256 ;
257 [label="entropy = 0.0\nsamples = 3\nvalue = [3, 0]", fillcolor="#e58139ff"] ;
256 -> 257 ;
258 [label="Last Name Match <= 0.5\nentropy = 0.414\nsamples = 12\nvalue = [11, 1]", fillcolor="#e58139e8"] ;
256 -> 258 ;
259 [label="City Match <= 0.5\nentropy = 0.469\nsamples = 10\nvalue = [9, 1]", fillcolor="#e58139e3"] ;
258 -> 259 ;
260 [label="entropy = 0.0\nsamples = 1\nvalue = [1, 0]", fillcolor="#e58139ff"] ;
259 -> 260 ;
261 [label="entropy = 0.503\nsamples = 9\nvalue = [8, 1]", fillcolor="#e58139df"] ;
259 -> 261 ;
262 [label="entropy = 0.0\nsamples = 2\nvalue = [2, 0]", fillcolor="#e58139ff"] ;
258 -> 262 ;
263 [label="City Match <= 0.5\nentropy = 0.903\nsamples = 47\nvalue = [32, 15]", fillcolor="#e5813987"] ;
255 -> 263 ;
264 [label="entropy = 0.0\nsamples = 3\nvalue = [3, 0]", fillcolor="#e58139ff"] ;
263 -> 264 ;
265 [label="Business Phone <= 0.5\nentropy = 0.926\nsamples = 44\nvalue = [29, 15]", fillcolor="#e581397b"] ;
263 -> 265 ;
266 [label="entropy = 0.0\nsamples = 1\nvalue = [1, 0]", fillcolor="#e58139ff"] ;
265 -> 266 ;
267 [label="Possibly Portable VOIP <= 0.5\nentropy = 0.933\nsamples = 43\nvalue = [28, 15]", fillcolor="#e5813976"] ;
265 -> 267 ;
268 [label="Relevant SIC <= 0.5\nentropy = 0.94\nsamples = 42\nvalue = [27, 15]", fillcolor="#e5813971"] ;
267 -> 268 ;
269 [label="Last Name Match <= 0.5\nentropy = 0.89\nsamples = 13\nvalue = [9, 4]", fillcolor="#e581398e"] ;
268 -> 269 ;
270 [label="entropy = 0.811\nsamples = 4\nvalue = [3, 1]", fillcolor="#e58139aa"] ;
269 -> 270 ;
271 [label="entropy = 0.918\nsamples = 9\nvalue = [6, 3]", fillcolor="#e581397f"] ;
269 -> 271 ;
272 [label="Last Name Match <= 0.5\nentropy = 0.958\nsamples = 29\nvalue = [18, 11]", fillcolor="#e5813963"] ;
268 -> 272 ;
273 [label="entropy = 0.961\nsamples = 26\nvalue = [16, 10]", fillcolor="#e5813960"] ;
272 -> 273 ;
274 [label="entropy = 0.918\nsamples = 3\nvalue = [2, 1]", fillcolor="#e581397f"] ;
272 -> 274 ;
275 [label="entropy = 0.0\nsamples = 1\nvalue = [1, 0]", fillcolor="#e58139ff"] ;
267 -> 275 ;
276 [label="No Date <= 0.5\nentropy = 0.764\nsamples = 45\nvalue = [10, 35]", fillcolor="#399de5b6"] ;
150 -> 276 ;
277 [label="Relevant Name <= 0.5\nentropy = 0.997\nsamples = 15\nvalue = [8, 7]", fillcolor="#e5813920"] ;
276 -> 277 ;
278 [label="entropy = 0.0\nsamples = 3\nvalue = [0, 3]", fillcolor="#399de5ff"] ;
277 -> 278 ;
279 [label="Last Name Match <= 0.5\nentropy = 0.918\nsamples = 12\nvalue = [8, 4]", fillcolor="#e581397f"] ;
277 -> 279 ;
280 [label="Relevant SIC <= 0.5\nentropy = 0.845\nsamples = 11\nvalue = [8, 3]", fillcolor="#e581399f"] ;
279 -> 280 ;
281 [label="entropy = 0.0\nsamples = 4\nvalue = [4, 0]", fillcolor="#e58139ff"] ;
280 -> 281 ;
282 [label="Address Match <= 0.5\nentropy = 0.985\nsamples = 7\nvalue = [4, 3]", fillcolor="#e5813940"] ;
280 -> 282 ;
283 [label="entropy = 1.0\nsamples = 2\nvalue = [1, 1]", fillcolor="#e5813900"] ;
282 -> 283 ;
284 [label="entropy = 0.971\nsamples = 5\nvalue = [3, 2]", fillcolor="#e5813955"] ;
282 -> 284 ;
285 [label="entropy = 0.0\nsamples = 1\nvalue = [0, 1]", fillcolor="#399de5ff"] ;
279 -> 285 ;
286 [label="Relevant Name <= 0.5\nentropy = 0.353\nsamples = 30\nvalue = [2, 28]", fillcolor="#399de5ed"] ;
276 -> 286 ;
287 [label="entropy = 0.0\nsamples = 14\nvalue = [0, 14]", fillcolor="#399de5ff"] ;
286 -> 287 ;
288 [label="Address Match <= 0.5\nentropy = 0.544\nsamples = 16\nvalue = [2, 14]", fillcolor="#399de5db"] ;
286 -> 288 ;
289 [label="Relevant SIC <= 0.5\nentropy = 0.811\nsamples = 4\nvalue = [1, 3]", fillcolor="#399de5aa"] ;
288 -> 289 ;
290 [label="entropy = 1.0\nsamples = 2\nvalue = [1, 1]", fillcolor="#e5813900"] ;
289 -> 290 ;
291 [label="entropy = 0.0\nsamples = 2\nvalue = [0, 2]", fillcolor="#399de5ff"] ;
289 -> 291 ;
292 [label="Last Name Match <= 0.5\nentropy = 0.414\nsamples = 12\nvalue = [1, 11]", fillcolor="#399de5e8"] ;
288 -> 292 ;
293 [label="entropy = 0.0\nsamples = 7\nvalue = [0, 7]", fillcolor="#399de5ff"] ;
292 -> 293 ;
294 [label="Relevant SIC <= 0.5\nentropy = 0.722\nsamples = 5\nvalue = [1, 4]", fillcolor="#399de5bf"] ;
292 -> 294 ;
295 [label="entropy = 0.0\nsamples = 2\nvalue = [0, 2]", fillcolor="#399de5ff"] ;
294 -> 295 ;
296 [label="entropy = 0.918\nsamples = 3\nvalue = [1, 2]", fillcolor="#399de57f"] ;
294 -> 296 ;
}